digraph Tree {
node [shape=box] ;
0 [label="X[3] <= -0.12\nentropy = 2.322\nsamples = 3576\nvalue = [715.2, 715.2, 715.2, 715.2, 715.2]"] ;
1 [label="X[3] <= -0.661\nentropy = 1.201\nsamples = 2177\nvalue = [715.2, 647.74, 57.049, 0.0, 0.0]"] ;
0 -> 1 [labeldistance=2.5, labelangle=45, headlabel="True"] ;
2 [label="X[3] <= -0.772\nentropy = 0.481\nsamples = 1178\nvalue = [683.963, 79.328, 0.0, 0.0, 0.0]"] ;
1 -> 2 ;
3 [label="entropy = 0.119\nsamples = 773\nvalue = [494.588, 8.12, 0.0, 0.0, 0.0]"] ;
2 -> 3 ;
28 [label="X[3] <= -0.71\nentropy = 0.846\nsamples = 405\nvalue = [189.375, 71.208, 0.0, 0.0, 0.0]"] ;
2 -> 28 ;
29 [label="X[2] <= -0.578\nentropy = 0.672\nsamples = 252\nvalue = [134.059, 28.733, 0.0, 0.0, 0.0]"] ;
28 -> 29 ;
30 [label="entropy = 0.533\nsamples = 183\nvalue = [104.124, 14.366, 0.0, 0.0, 0.0]"] ;
29 -> 30 ;
43 [label="X[6] <= -0.623\nentropy = 0.909\nsamples = 69\nvalue = [29.936, 14.366, 0.0, 0.0, 0.0]"] ;
29 -> 43 ;
44 [label="entropy = 0.504\nsamples = 26\nvalue = [14.968, 1.874, 0.0, 0.0, 0.0]"] ;
43 -> 44 ;
49 [label="X[2] <= -0.414\nentropy = 0.994\nsamples = 43\nvalue = [14.968, 12.493, 0.0, 0.0, 0.0]"] ;
43 -> 49 ;
50 [label="entropy = 0.971\nsamples = 39\nvalue = [14.968, 9.994, 0.0, 0.0, 0.0]"] ;
49 -> 50 ;
53 [label="entropy = 0.0\nsamples = 4\nvalue = [0.0, 2.499, 0.0, 0.0, 0.0]"] ;
49 -> 53 ;
54 [label="X[4] <= -0.59\nentropy = 0.988\nsamples = 153\nvalue = [55.316, 42.475, 0.0, 0.0, 0.0]"] ;
28 -> 54 ;
55 [label="X[2] <= -0.53\nentropy = 0.936\nsamples = 119\nvalue = [49.459, 26.859, 0.0, 0.0, 0.0]"] ;
54 -> 55 ;
56 [label="entropy = 0.865\nsamples = 98\nvalue = [44.903, 18.114, 0.0, 0.0, 0.0]"] ;
55 -> 56 ;
63 [label="entropy = 0.927\nsamples = 21\nvalue = [4.555, 8.745, 0.0, 0.0, 0.0]"] ;
55 -> 63 ;
68 [label="X[1] <= -0.667\nentropy = 0.845\nsamples = 34\nvalue = [5.857, 15.616, 0.0, 0.0, 0.0]"] ;
54 -> 68 ;
69 [label="X[0] <= -0.908\nentropy = 0.927\nsamples = 27\nvalue = [5.857, 11.243, 0.0, 0.0, 0.0]"] ;
68 -> 69 ;
70 [label="entropy = 0.0\nsamples = 5\nvalue = [0.0, 3.123, 0.0, 0.0, 0.0]"] ;
69 -> 70 ;
71 [label="X[2] <= -0.624\nentropy = 0.981\nsamples = 22\nvalue = [5.857, 8.12, 0.0, 0.0, 0.0]"] ;
69 -> 71 ;
72 [label="entropy = 0.0\nsamples = 5\nvalue = [3.254, 0.0, 0.0, 0.0, 0.0]"] ;
71 -> 72 ;
73 [label="entropy = 0.8\nsamples = 17\nvalue = [2.603, 8.12, 0.0, 0.0, 0.0]"] ;
71 -> 73 ;
74 [label="entropy = 0.0\nsamples = 7\nvalue = [0.0, 4.372, 0.0, 0.0, 0.0]"] ;
68 -> 74 ;
75 [label="X[3] <= -0.348\nentropy = 0.696\nsamples = 999\nvalue = [31.237, 568.412, 57.049, 0.0, 0.0]"] ;
1 -> 75 ;
76 [label="entropy = 0.378\nsamples = 681\nvalue = [31.237, 395.39, 0.0, 0.0, 0.0]"] ;
75 -> 76 ;
107 [label="X[3] <= -0.234\nentropy = 0.808\nsamples = 318\nvalue = [0.0, 173.022, 57.049, 0.0, 0.0]"] ;
75 -> 107 ;
108 [label="X[6] <= 0.781\nentropy = 0.509\nsamples = 185\nvalue = [0.0, 109.31, 13.914, 0.0, 0.0]"] ;
107 -> 108 ;
109 [label="X[2] <= 0.123\nentropy = 0.409\nsamples = 182\nvalue = [0.0, 109.31, 9.74, 0.0, 0.0]"] ;
108 -> 109 ;
110 [label="X[0] <= -0.644\nentropy = 0.239\nsamples = 166\nvalue = [0.0, 101.814, 4.174, 0.0, 0.0]"] ;
109 -> 110 ;
111 [label="X[1] <= -0.403\nentropy = 0.998\nsamples = 6\nvalue = [0.0, 2.499, 2.783, 0.0, 0.0]"] ;
110 -> 111 ;
112 [label="entropy = 0.0\nsamples = 4\nvalue = [0.0, 2.499, 0.0, 0.0, 0.0]"] ;
111 -> 112 ;
113 [label="entropy = 0.0\nsamples = 2\nvalue = [0.0, 0.0, 2.783, 0.0, 0.0]"] ;
111 -> 113 ;
114 [label="entropy = 0.105\nsamples = 160\nvalue = [0.0, 99.316, 1.391, 0.0, 0.0]"] ;
110 -> 114 ;
117 [label="entropy = 0.984\nsamples = 16\nvalue = [0.0, 7.496, 5.566, 0.0, 0.0]"] ;
109 -> 117 ;
122 [label="entropy = -0.0\nsamples = 3\nvalue = [0.0, 0.0, 4.174, 0.0, 0.0]"] ;
108 -> 122 ;
123 [label="entropy = 0.973\nsamples = 133\nvalue = [0.0, 63.712, 43.135, 0.0, 0.0]"] ;
107 -> 123 ;
136 [label="X[3] <= 0.743\nentropy = 1.735\nsamples = 1399\nvalue = [0.0, 67.46, 658.151, 715.2, 715.2]"] ;
0 -> 136 [labeldistance=2.5, labelangle=-45, headlabel="False"] ;
137 [label="X[3] <= 0.339\nentropy = 1.242\nsamples = 693\nvalue = [0.0, 67.46, 630.322, 274.412, 7.343]"] ;
136 -> 137 ;
138 [label="X[3] <= 0.194\nentropy = 0.814\nsamples = 434\nvalue = [0.0, 66.211, 439.695, 25.929, 0.0]"] ;
137 -> 138 ;
139 [label="X[2] <= 0.444\nentropy = 0.795\nsamples = 307\nvalue = [0.0, 66.211, 276.896, 4.321, 0.0]"] ;
138 -> 139 ;
140 [label="X[3] <= -0.021\nentropy = 0.749\nsamples = 270\nvalue = [0.0, 63.712, 233.762, 0.0, 0.0]"] ;
139 -> 140 ;
141 [label="X[0] <= -0.211\nentropy = 0.935\nsamples = 97\nvalue = [0.0, 33.105, 61.223, 0.0, 0.0]"] ;
140 -> 141 ;
142 [label="entropy = 0.429\nsamples = 17\nvalue = [0.0, 1.874, 19.48, 0.0, 0.0]"] ;
141 -> 142 ;
145 [label="X[2] <= -0.148\nentropy = 0.985\nsamples = 80\nvalue = [0.0, 31.231, 41.743, 0.0, 0.0]"] ;
141 -> 145 ;
146 [label="entropy = 0.901\nsamples = 29\nvalue = [0.0, 14.991, 6.957, 0.0, 0.0]"] ;
145 -> 146 ;
147 [label="entropy = 0.902\nsamples = 51\nvalue = [0.0, 16.24, 34.786, 0.0, 0.0]"] ;
145 -> 147 ;
148 [label="entropy = 0.612\nsamples = 173\nvalue = [0.0, 30.607, 172.539, 0.0, 0.0]"] ;
140 -> 148 ;
155 [label="X[6] <= 0.695\nentropy = 0.704\nsamples = 37\nvalue = [0.0, 2.499, 43.135, 4.321, 0.0]"] ;
139 -> 155 ;
156 [label="entropy = 0.306\nsamples = 35\nvalue = [0.0, 2.499, 43.135, 0.0, 0.0]"] ;
155 -> 156 ;
161 [label="entropy = 0.0\nsamples = 2\nvalue = [0.0, 0.0, 0.0, 4.321, 0.0]"] ;
155 -> 161 ;
162 [label="entropy = 0.521\nsamples = 127\nvalue = [0.0, 0.0, 162.798, 21.607, 0.0]"] ;
138 -> 162 ;
175 [label="X[3] <= 0.553\nentropy = 1.117\nsamples = 259\nvalue = [0.0, 1.249, 190.627, 248.483, 7.343]"] ;
137 -> 175 ;
176 [label="X[6] <= 0.678\nentropy = 1.082\nsamples = 145\nvalue = [0.0, 1.249, 141.927, 84.268, 2.937]"] ;
175 -> 176 ;
177 [label="entropy = 0.926\nsamples = 112\nvalue = [0.0, 1.249, 121.055, 49.697, 0.0]"] ;
176 -> 177 ;
190 [label="X[6] <= 0.781\nentropy = 1.195\nsamples = 33\nvalue = [0.0, 0.0, 20.872, 34.572, 2.937]"] ;
176 -> 190 ;
191 [label="entropy = 0.0\nsamples = 7\nvalue = [0.0, 0.0, 0.0, 15.125, 0.0]"] ;
190 -> 191 ;
192 [label="X[2] <= 0.791\nentropy = 1.289\nsamples = 26\nvalue = [0.0, 0.0, 20.872, 19.447, 2.937]"] ;
190 -> 192 ;
193 [label="entropy = 1.147\nsamples = 21\nvalue = [0.0, 0.0, 20.872, 10.804, 1.469]"] ;
192 -> 193 ;
196 [label="entropy = 0.598\nsamples = 5\nvalue = [0.0, 0.0, 0.0, 8.643, 1.469]"] ;
192 -> 196 ;
199 [label="X[6] <= 0.815\nentropy = 0.903\nsamples = 114\nvalue = [0.0, 0.0, 48.7, 164.215, 4.406]"] ;
175 -> 199 ;
200 [label="X[2] <= 0.204\nentropy = 0.855\nsamples = 85\nvalue = [0.0, 0.0, 44.526, 114.518, 0.0]"] ;
199 -> 200 ;
201 [label="entropy = 0.971\nsamples = 20\nvalue = [0.0, 0.0, 19.48, 12.964, 0.0]"] ;
200 -> 201 ;
206 [label="entropy = 0.718\nsamples = 65\nvalue = [0.0, 0.0, 25.046, 101.554, 0.0]"] ;
200 -> 206 ;
213 [label="entropy = 0.75\nsamples = 29\nvalue = [0.0, 0.0, 4.174, 49.697, 4.406]"] ;
199 -> 213 ;
226 [label="X[3] <= 1.465\nentropy = 1.099\nsamples = 706\nvalue = [0.0, 0.0, 27.829, 440.788, 707.857]"] ;
136 -> 226 ;
227 [label="X[2] <= 1.486\nentropy = 1.128\nsamples = 360\nvalue = [0.0, 0.0, 27.829, 425.663, 210.007]"] ;
226 -> 227 ;
228 [label="X[3] <= 1.122\nentropy = 1.024\nsamples = 285\nvalue = [0.0, 0.0, 27.829, 399.734, 117.487]"] ;
227 -> 228 ;
229 [label="entropy = 0.875\nsamples = 183\nvalue = [0.0, 0.0, 26.437, 293.859, 41.12]"] ;
228 -> 229 ;
242 [label="X[6] <= 1.329\nentropy = 1.038\nsamples = 102\nvalue = [0.0, 0.0, 1.391, 105.876, 76.366]"] ;
228 -> 242 ;
243 [label="entropy = 0.929\nsamples = 65\nvalue = [0.0, 0.0, 1.391, 88.59, 33.777]"] ;
242 -> 243 ;
248 [label="entropy = 0.867\nsamples = 37\nvalue = [0.0, 0.0, 0.0, 17.286, 42.589]"] ;
242 -> 248 ;
253 [label="entropy = 0.758\nsamples = 75\nvalue = [0.0, 0.0, 0.0, 25.929, 92.521]"] ;
227 -> 253 ;
264 [label="entropy = 0.192\nsamples = 346\nvalue = [0.0, 0.0, 0.0, 15.125, 497.85]"] ;
226 -> 264 ;
}